1 256
bdkFmSM 0.14540493 0.22126374 0.087030664 0.16718496 -0.18309273 -0.023771362 -0.32312343 -0.30498224 -0.17581446 -0.35046792 -0.31224817 0.03414331 0.16421925 -0.24479184 0.23728734 -0.2784503 -0.32595548 -0.2337854 -0.20625044 0.18047336 0.35800087 0.23746389 0.18871021 0.27828205 -0.017221423 -0.2185785 -0.25295165 -0.16508664 0.08507954 -0.20068401 0.22525276 -0.14793533 0.2791436 -0.2376813 -0.20525606 -0.101573385 0.24513969 0.020766854 -0.1072222 0.24258041 0.015807804 0.26053983 0.13263352 0.2968621 -0.18308549 -0.34037092 -0.057111338 -0.04907886 -0.06903008 -0.071454175 0.13827206 0.20236832 -0.16117011 0.3703861 0.04073202 -0.313641 0.13676451 0.058380656 0.076495804 -0.2845907 -0.15408215 -0.2411193 0.30058673 -0.25009108 0.094722904 0.22214516 -0.1714389 0.26160106 0.15807429 0.21389301 0.10478855 -0.08811812 0.034019474 0.2814997 0.25811908 -0.41460624 -0.04153344 0.36567932 0.13457327 -0.18072096 -0.1993919 -0.20613897 0.26099 -0.24297063 0.08894661 -0.23738253 -0.14760315 -0.20570351 -0.055364586 0.037345584 -0.2917318 -0.055807706 -0.28511542 0.29556742 -0.19084279 0.21551992 0.041567538 -0.2138731 0.04688663 -0.17276421 0.2347899 0.1239296 -0.2621418 0.116358265 -0.17080204 0.30057672 -0.13402954 0.24923609 -0.2833078 -0.18795066 0.31221437 0.3515846 0.0044030948 0.28096548 0.24809606 0.161172 -0.10426336 -0.22495279 -0.33620232 0.07822967 -0.16266973 -0.17500986 -0.14742945 0.34707886 0.21848904 -0.13294537 -0.13137276 0.13886352 -0.18414123 -0.02260363 -0.040593177 -0.35116246 -0.020095548 -0.26573917 -0.33053917 -0.30241072 0.2472074 -0.30506748 -0.0663825 -0.22972672 -0.3806124 -0.09500152 0.24112567 -0.22648232 -0.3654544 -0.1784517 -0.33408174 0.26226363 0.22575665 0.17874274 0.26272997 0.27808595 -0.14494851 -0.15513955 -0.31065488 -0.17926183 0.063055135 -0.06856984 -0.06934008 -0.08869433 -0.30419043 0.29084834 -0.062618524 -0.13050137 0.25164813 0.34455007 8.609146e-06 -0.062183768 -0.10449385 -0.03604804 0.23244172 -0.13355322 0.026969163 0.02034518 0.02841046 -0.32826623 -0.12469263 -0.0015975586 0.16189349 0.2173491 -0.19761123 -0.32429102 -0.055796053 -0.20325495 -0.16769338 0.1651388 -0.36126933 -0.025051113 -0.05725892 -0.04248189 0.24056295 -0.32095483 0.2543872 0.06107399 -0.105849825 0.27982378 0.23202844 -0.33075696 -0.34342265 0.2906547 -0.12541293 0.1077898 0.26000687 -0.098939694 0.03265288 0.094550475 0.1505163 -0.20620413 -0.24886751 0.2732741 -0.30567443 -0.3120628 0.14200571 -0.08592513 -0.012137345 -0.2532901 -0.061350025 -0.1633361 -0.3432122 -0.18530226 -0.2626837 0.33080336 0.09079306 -0.04469592 0.014207825 0.0007332638 0.22545125 0.076241255 -0.018886365 0.19747908 -0.16781841 0.060906623 -0.26149577 0.11775819 -0.22137496 0.27642226 -0.117378004 -0.02317382 -0.3395138 0.28658158 0.008480843 0.21379343 0.27819756 -0.09749059 -0.095378116 0.017643023 -0.0026961742 -0.034004256 -0.24492492 -0.24281017 0.17556225 0.3335533 0.28063923 -0.01822833 0.08597571 0.062216774
