1 256
dxSkZV9iYZmk 0.28287694 -0.10331822 -0.3013674 -0.24935879 0.30111116 0.30224577 -0.212047 0.27006003 -0.36230722 0.28445604 0.27494204 0.11335033 -0.038427882 0.27487218 -0.0722638 -0.3381055 0.17012823 -0.38262752 0.069361106 -0.2740932 -0.04246186 -0.10601178 -0.1489575 0.32192993 0.25623584 0.3554196 0.31203887 -0.36592034 0.04064972 0.17926222 0.19857676 -0.18192078 -0.3416885 0.03788335 -0.16518544 0.098132305 -0.07305835 0.3105739 -0.04319313 0.23729956 0.26261026 0.25303948 0.039016128 -0.1272861 0.37719077 0.040314615 0.046780027 -0.20637542 -0.105457045 -0.36951372 -0.27036062 -0.32377997 0.24108638 -0.121174745 -0.2609909 0.3386331 0.20697373 0.2788629 -0.18409176 -0.23984128 0.25300935 -0.3470553 -0.30187264 -0.14840347 -0.043028526 -0.30982146 0.10130038 0.046385825 -0.047391795 -0.11130628 0.2842857 -0.23975165 -0.30704227 0.16756865 -0.3453943 -0.1716672 0.22706147 -0.23300898 0.28543103 -0.20129402 -0.15459026 -0.21351448 0.24859983 0.08682585 -0.23289236 -0.06239117 -0.35702604 0.32541865 0.26582628 -0.24367726 -0.10816612 0.19046092 0.24461235 0.20326917 -0.14549932 -0.30388063 0.31519544 -0.34860814 0.07702232 0.27370018 -0.32835475 -0.32128796 0.11345295 0.30371693 0.028666414 -0.19559675 0.31181708 -0.26482332 0.051418204 -0.35619563 -0.29539612 -0.067211494 -0.10856776 -0.15484138 0.015484708 0.30813712 0.13649105 0.26220745 0.019689428 0.16362838 0.20605959 0.21800937 0.24699809 -0.28012648 -0.09789532 -0.021944743 -0.33215111 -0.0492075 0.2402952 0.00045119692 0.24320585 0.06110149 -0.31780902 0.25592813 0.044266272 0.29718268 -0.081096284 0.2780195 -0.15179045 -0.3063713 -0.16618866 0.1043476 -0.22420202 -0.25033182 0.17731957 0.048722874 0.31006554 -0.23254117 0.020457292 -0.018246949 0.05926637 -0.18694592 0.2759806 -0.19665928 0.3207496 -0.329494 0.0878417 0.081196874 0.1150238 -0.06325197 -0.20476906 -0.2597134 -0.22987108 -0.18441148 -0.23673457 -0.021415677 -0.020690579 0.13725351 0.2030711 -0.10537094 -0.1565445 -0.20737629 -0.17992319 -0.29660025 0.04303703 -0.20994595 0.093403816 -0.3471564 0.15106569 -0.10170074 -0.09691218 -0.2608815 -0.29287246 0.27772298 0.17516074 0.30221197 -0.29767004 -0.30845648 -0.15108697 -0.34410143 -0.15576854 0.12511294 0.093014635 -0.17013693 0.29598242 -0.31585777 -0.15970603 0.15222664 -0.111978196 -0.3274671 -0.2690216 -0.06978333 -0.3008769 -0.3468106 0.24022475 -0.23705551 0.3520426 -0.15462568 -0.1832584 0.015095953 0.18636805 -0.36912504 0.3383128 -0.026967896 -0.06875055 0.24285652 0.34182194 -0.2989018 0.34595138 -0.25308967 0.2982696 -0.01368513 0.11612714 0.20413315 -0.1152152 -0.17796513 -0.18268816 0.22034623 -0.33460027 0.2604972 -0.28773016 -0.3171134 -0.20262703 0.08493417 0.27968132 -0.2636762 -0.21403356 -0.2674419 -0.30787346 -0.28822353 -0.22520143 -0.32133403 -0.14968395 -0.043206975 -0.14981735 0.3446941 0.35680693 0.14969262 0.09176146 0.30048728 0.12661727 -0.3196576 0.10169816 -0.3180071 0.06689965 0.37810382
