1 256
c06Cxk0UCk4Cq -0.018309355 0.02263755 0.016906869 0.017013663 0.01651482 -0.022106953 0.019826047 0.023570523 -0.023449503 -0.016338337 -0.019849055 -0.019186357 0.02222291 0.021767998 0.02089625 -0.016347352 -0.022875044 0.019620972 -0.0202072 -0.022240797 0.021968253 -0.02243039 -0.021942949 -0.021820424 0.02155165 0.02146596 -0.019469405 0.016775347 0.019606382 0.021416446 0.018563917 0.018554807 0.02185411 -0.018621562 -0.018852115 0.022142919 -0.01901427 0.016912969 -0.019337963 -0.018734412 -0.0165843 -0.023751607 -0.017176772 -0.018287115 0.020114947 0.017007045 0.018000057 0.016715784 0.02169237 0.019502474 0.023385542 -0.021389298 -0.019888442 -0.021649962 0.019971628 -0.019218817 -0.022577584 0.02038159 0.01795114 0.022467878 -0.01796261 -0.018434092 -0.021890821 0.019926583 0.019350447 -0.02307826 -0.020843808 -0.023053976 0.016417023 0.021712292 0.01970189 0.020603145 -0.018790867 0.02251827 0.019269783 0.021617353 0.016208634 0.022606576 -0.023791643 0.022776473 -0.018801168 -0.023060061 -0.02118662 0.019057658 -0.022092445 0.020464255 0.01696168 -0.02314585 0.023256289 0.01930838 -0.020926906 -0.016497226 -0.023584671 -0.023710486 0.019540947 0.023131406 -0.022561157 0.021833435 -0.023824004 -0.022936678 -0.016404362 0.018642318 -0.016254636 -0.020303577 -0.01649201 -0.019192908 0.017751733 0.023510572 0.016250873 0.018469146 0.018444045 -0.016616631 -0.02380601 0.017359853 0.023767553 0.017029013 -0.021627052 0.021680988 -0.018564818 0.017120302 -0.021954218 -0.01769544 0.01865248 -0.019654071 0.022978432 -0.01881903 -0.023576135 -0.018892497 -0.017702661 0.019421352 0.01682458 -0.019107955 0.020523148 -0.017544327 -0.019064637 0.01699292 -0.020611867 -0.021422043 0.023329157 -0.018398754 -0.018695839 0.018161105 -0.017068742 0.017788809 -0.022178773 0.019651068 -0.019668385 -0.021065567 0.021477433 0.02205647 0.022266062 0.019985888 0.018360568 0.020050423 -0.023452546 0.021455813 0.021260453 0.022341693 -0.023503551 0.021783058 -0.01660987 -0.023778796 -0.023587022 0.019920044 -0.022355746 0.018973092 0.020820733 -0.017956516 -0.02300381 -0.01812428 0.021760194 -0.021956496 -0.016746514 -0.020807859 -0.02103355 0.019992912 0.01794598 0.020920623 -0.01770628 -0.016758205 -0.019178445 -0.022200158 0.021883499 -0.022888146 -0.022050772 0.018384583 0.01878861 -0.02204226 -0.021004383 -0.020378103 -0.018495739 0.019536838 0.016739607 -0.018008206 -0.016429603 -0.023879312 0.016644232 0.022598097 -0.020341175 0.021974647 0.019420855 0.021858571 -0.01952954 0.02026727 0.02105274 0.02078398 0.021863196 0.02108891 -0.018815301 -0.020288115 -0.019475678 0.021356191 0.018708494 0.020732068 -0.017039727 0.023831975 0.01671134 0.021374878 -0.020665208 -0.020740747 -0.018442314 0.021448156 -0.019846836 -0.023488307 -0.022874303 0.021680541 0.018323349 -0.019184813 -0.022038247 0.02312075 0.020235917 -0.021512514 -0.020127423 0.016664777 0.01744391 0.023718968 -0.02379035 0.023782652 0.019864665 -0.016776282 -0.01744915 0.0206722 -0.017671557 -0.02080673 -0.02349296 -0.020947317 -0.016784266 0.017123628 -0.019099366 0.021900747 0.01762122 -0.022707485 0.01756016 -0.023748845 -0.019420888 -0.019520508
