1 256
hMuEjR7TAHw 0.009713489 -0.25981754 -0.1005532 -0.04693649 -0.24952403 0.20558581 0.24081746 0.022716304 0.15628569 0.1298798 -0.26017338 0.31130773 -0.082420535 -0.067066155 -0.04526938 -0.13414535 0.019638557 -0.23602003 0.28127557 -0.21679044 -0.2629372 0.2561897 -0.12652828 -0.18276265 0.23447365 0.14283486 -0.06526875 -0.085294135 -0.0919794 0.087224506 -0.24088113 0.042945705 0.32634023 0.26678792 -0.026132401 -0.012899705 0.120317064 -0.14641628 0.19993088 0.050912756 0.22611225 -0.0101157045 -0.11940544 -0.29530838 -0.09560765 0.071286 0.08039342 0.15741588 -0.05396118 -0.22709668 0.023683926 0.12790444 0.13213047 0.07790407 0.2954691 0.20749871 0.021558966 0.073835194 -0.27096412 0.2672786 0.07283867 -0.057740737 -0.27743354 -0.032453768 0.29285213 -0.091201596 0.12610859 -0.24195018 -0.3066575 -0.044345967 -0.11182747 -0.17435196 0.20430237 -0.23372936 0.19914243 -0.19454959 0.008691836 -0.14902794 -0.2591151 0.31989765 0.135536 0.2672207 -0.3164979 -0.045584187 -0.13616063 -0.18768851 -0.1694038 0.26654366 0.30690208 0.099507175 0.2218527 0.33905908 0.27359483 -0.31867567 -0.010869872 -0.26415652 0.16497561 -0.21295528 -0.022968 0.19809203 0.27905878 0.03555287 0.16441128 -0.120697506 0.12609038 -0.2840316 -0.16740042 -0.22589481 -0.23490612 0.12153316 -0.07220998 0.21597855 -0.32768402 0.013194359 0.18714742 -0.016891826 0.2528125 0.17859596 0.18332447 -0.25101885 0.29863757 0.1064073 -0.035230953 -0.16473758 0.104340225 0.008114664 0.09608677 -0.05946756 -0.22464527 -0.2737973 -0.2547988 -0.2661477 -0.069354944 0.24385005 0.29969352 0.16587229 0.23252276 0.2618619 -0.06654581 0.16393553 0.14868191 -0.22735792 0.30060795 0.14222726 0.27706367 -0.3005443 0.12322964 0.22089331 -0.27571893 -0.21214166 0.09368546 0.011736508 0.28989673 0.052036297 -0.30676222 0.1658359 -0.30192786 -0.2711273 -0.26180902 -0.18670078 0.29752058 0.12869148 0.12210229 -0.1084387 0.29914945 -0.2711881 0.22502202 0.1744016 0.17484164 0.110212415 0.21397224 0.24566431 0.12127051 0.3405267 -0.03610748 0.04655104 -0.31293178 -0.16816144 0.15708353 0.07126614 0.041462816 0.2719013 0.2770665 0.28236514 -0.3162135 0.09527105 0.24648954 0.23212774 -0.08971746 0.112976015 -0.27757537 0.11681471 0.26548693 0.2506188 -0.039819818 0.060162175 0.08757966 -0.28024256 0.27794573 -0.24900348 -0.19937788 -0.09547195 0.29141974 -0.31542826 -0.18602805 0.27738222 -0.23417738 0.09427019 0.21583673 -0.15633228 -0.3042786 -0.3342572 -0.31555256 -0.18327336 0.2753896 0.25867197 -0.058190223 0.16875376 0.15139385 0.29735905 0.23354152 -0.31272727 -0.17890592 0.28244966 0.32492003 -0.25290012 -0.25245088 -0.22005633 0.28285173 -0.25416368 0.23895799 -0.15910502 -0.14770383 -0.11572152 0.27015495 -0.23860104 0.2462887 0.3133694 0.11215461 -0.058044113 0.18197215 -0.07500361 -0.0069273273 0.30696267 0.058709964 0.110492766 -0.03873829 -0.14887077 0.26476288 -0.29750556 0.1411001 -0.14449175 0.023178648 0.2765793 0.14915511 -0.15043359
