1 256
e6JPXvvDet3o5y 0.09663213 -0.051334642 -0.3615557 -0.023902293 0.3111065 -0.26918286 0.32981092 0.003931593 0.33504033 0.3637912 0.25490355 -0.23214869 0.050327502 0.2401436 -0.19296958 0.36719537 0.039986957 0.10837033 0.30240932 -0.107027985 -0.242074 -0.3653486 0.21577954 -0.20276247 -0.31131455 0.21697672 0.29610837 0.21342589 -0.1263955 0.38690582 -0.33563936 0.25470468 0.20374078 0.2619763 -0.1972621 -0.39922053 -0.3253705 0.11588215 0.063438766 -0.090244114 0.059992515 0.05922062 0.27962637 -0.3749282 0.012789352 0.27038804 0.16379027 0.08446285 -0.19930139 0.18526083 0.37064222 -0.22880068 0.2697061 -0.27867633 -0.35153666 0.10307511 0.13643256 -0.093025655 0.20559654 -0.23296717 -0.15455164 0.08573001 0.0063646506 0.27668312 0.32859415 -0.22131263 -0.1144754 0.05377704 -0.24896237 -0.29609826 -0.24986412 -0.21129408 0.2789442 -0.18516909 -0.3520778 0.3671342 -0.042180296 0.3235302 0.359539 -0.39328337 0.25398254 0.20940107 -0.17858917 -0.17387639 -0.360197 -0.17869595 0.19822396 0.21289976 0.055842016 -0.36774102 -0.1322581 -0.24974641 -0.30218798 -0.1478051 0.092400596 -0.25298586 -0.3207747 -0.36923963 0.36612698 0.21144754 -0.14691795 -0.21570817 -0.23172182 0.34431005 -0.052858464 -0.29984728 -0.29786426 -0.32441875 0.38215792 -0.2089834 -0.18775639 -0.34396031 -0.2548321 -0.120521046 -0.16969392 0.117117025 -0.12943365 0.037167393 0.14072508 -0.15036805 0.17215456 0.17601345 0.043931104 -0.21246499 -0.22268978 -0.27248943 -0.1998666 0.061492585 -0.2115956 0.21956742 0.32710093 0.15051343 -0.35959417 -0.22963642 0.30838904 0.11879826 -0.34185627 0.30722597 -0.023413975 0.34596235 0.3473438 -0.06037351 -0.31067544 0.10522529 -0.039811824 0.119416125 0.26238605 -0.28746298 0.07552114 0.12955222 -0.13808894 -0.26542887 -0.10155324 -0.24863763 -0.3020253 0.22600193 -0.21261379 -0.12852857 -0.17547698 0.043647427 -0.29721114 -0.28762692 0.31789747 0.15317968 -0.20342 -0.085881844 0.19330753 0.34440517 -0.35013077 -0.38872823 -0.13145147 -0.12775262 0.1097 0.004988431 0.27363586 0.35801798 -0.261885 -0.22010094 0.34973425 0.081993796 -0.160223 -0.13070142 -0.020032395 0.28035474 -0.12594411 0.34427696 0.041779794 0.37762508 0.1646334 -0.056336094 -0.2863361 0.009381233 -0.2138566 0.278703 -0.30747718 -0.33879972 -0.2939402 -0.18042333 0.2511113 0.3256685 0.17354088 -0.12659122 -0.27568445 0.16693541 -0.30901212 0.04522985 -0.22814827 -0.04173238 0.05054853 -0.049006388 0.06816247 -0.2729641 -0.3203963 -0.3484549 0.14901906 0.2826193 -0.18145846 0.2555211 0.27633098 -0.3899377 -0.24405172 -0.30281222 0.2064908 0.22052276 0.2489419 -0.2621823 -0.2189333 0.116486415 -0.31292757 -0.2503053 0.091356024 0.26782647 0.16485105 -0.30444083 -0.17074707 -0.29266608 0.39388564 -0.22591309 0.11410275 -0.35921127 -0.15082687 -0.26106408 -0.25840825 0.114651896 -0.01657765 0.11323972 -0.32429326 -0.29490688 0.057778217 -0.007933304 -0.12586099 -0.2756909 -0.18574716 -0.08220373 -0.18112765 0.03546444
