1 256
wS2JiUPRyQ66 0.016700333 0.021687359 0.020666309 -0.020962834 0.0238383 0.019383863 0.019028656 -0.022280794 0.022896245 -0.020166945 0.018664109 0.016439358 -0.01833886 0.020686604 -0.016315226 0.019785086 -0.021888359 0.0227435 -0.022671433 -0.020006888 0.02184211 -0.0188629 0.021100484 -0.020723268 -0.020442683 0.023134973 0.018879604 0.020442933 -0.022143967 0.02181309 -0.018112168 -0.022425884 -0.019737339 -0.018906703 -0.021350749 0.023531632 -0.017591229 0.016484637 0.018284172 -0.019347034 -0.021464724 -0.01909089 -0.01722737 0.020007178 0.017208755 -0.020488512 -0.017670512 0.020501371 0.016201835 0.019062452 -0.023505488 -0.020766154 0.017751936 0.018985543 0.016435819 0.016830495 -0.02151002 -0.017225398 0.016393023 0.017897554 0.0171361 0.021482848 0.022535972 0.016643759 -0.02118488 -0.020581666 -0.016831422 -0.022511257 0.016290743 0.016643029 -0.022049641 0.019950671 -0.016478034 -0.017525056 -0.018912151 0.020379936 -0.021407064 -0.022332419 0.022995774 0.020578926 -0.019278336 -0.020467583 -0.020065023 0.022914255 -0.022364609 0.020300703 -0.021326536 -0.017220758 0.016703468 0.02130634 0.017371831 0.016654175 0.018864445 -0.016735159 -0.020215105 -0.01718602 -0.017816827 0.023427557 -0.019062184 0.022227636 -0.016927127 0.017956983 0.023179159 -0.019635528 0.021505581 0.01668612 0.021043446 -0.022730436 0.01804546 0.017938137 0.016898643 -0.02058553 -0.020156927 -0.020862238 -0.020523822 -0.022085452 0.01708344 0.017914426 0.02263446 0.020002676 0.017156318 0.02361611 -0.017103098 -0.018308423 0.018395297 0.01616487 -0.01800203 0.020939872 -0.02346121 -0.019927915 0.019301139 -0.019909307 0.019033452 -0.01891202 0.023662683 -0.021038605 -0.020315029 -0.017196625 0.019086078 -0.021160953 -0.01715752 0.020909363 -0.019839585 0.022368718 -0.01886686 0.018843189 -0.021963092 -0.02136102 0.023513572 -0.02035461 -0.018168021 -0.022258818 0.019196736 0.01615324 -0.017131688 -0.020419233 0.018535554 0.017739192 -0.021439072 0.021083526 -0.023360811 -0.017713625 0.019386481 0.01696574 -0.021515043 0.020820435 0.019864282 -0.017130228 -0.018748272 -0.019716522 -0.018001316 0.02275233 -0.02292316 -0.020953005 -0.018956527 0.018167768 0.019611437 0.019702438 -0.018866463 -0.022332259 -0.019405082 0.016941173 0.02332289 0.016528487 -0.018593382 -0.021196648 0.016446322 -0.020226086 0.0184033 0.016702933 0.022182947 0.019415367 -0.02335704 -0.021407166 -0.017381324 -0.018130936 -0.01771973 0.016246337 -0.019258004 0.021237032 0.022899726 0.019647246 -0.017026627 -0.019278321 0.023015095 0.023293382 0.023659097 0.021443944 -0.022815002 0.019021275 -0.020125989 0.023803923 0.020742914 0.023337342 -0.02186381 -0.02244637 0.018527828 0.021981347 0.01874402 0.019424992 0.019224005 -0.021232527 -0.017071163 -0.017456373 -0.023856036 0.020980168 -0.02320769 0.02223925 -0.017134432 0.018427625 0.02052319 0.017647944 0.01894586 0.022472905 0.021035355 -0.02093545 0.018193673 0.02368982 0.02060704 -0.02234489 0.021982359 0.019783285 -0.016727038 -0.018105552 0.023048505 0.02021679 0.018542401 0.019463278 0.021139316 0.016755842 -0.021815503 0.018704578 0.021394597 -0.023090135 -0.019720012 -0.021898974
