1 256
bImxiZqnzVuzju3 -0.16487235 -0.1630057 -0.095528334 0.17388722 -0.10938312 0.18464209 0.14732102 -0.15737846 -0.07718411 -0.06549963 -0.15411189 0.16425519 0.1322224 -0.1505787 0.15112613 -0.17038232 -0.0020187488 -0.15489863 -0.04382459 0.11310334 -0.077373974 0.11091742 -0.17269465 0.14307523 0.16826564 -0.14423698 -0.1545716 -0.122250855 -0.023276795 -0.12890236 0.15730152 -0.04151383 -0.0073269643 0.16159509 0.15412247 -0.117639355 0.10219935 -0.13560468 -0.017362755 0.12843643 -0.17580426 0.18034208 -0.17393637 0.16913405 -0.17940718 -0.03697084 -0.009421508 -0.12952437 -0.11504681 -0.16402501 -0.010359911 0.13620487 0.18071923 0.17186302 0.17968602 0.038131505 0.15010703 0.06791323 0.17951453 0.15409976 -0.13586521 -0.17244811 0.037489913 -0.16179562 0.1680286 0.13438743 0.15569043 0.14088842 0.18183394 -0.14547189 0.06270449 -0.1660428 -0.014909072 0.14329791 0.16421348 -0.18261647 -0.0052305926 0.17455241 0.17949572 -0.097312324 -0.1647548 -0.13121939 0.1415605 -0.17054814 0.0075352294 -0.17106248 -0.14391074 0.18069845 0.16746023 -0.08535208 0.1699319 -0.13738155 0.058988247 0.15816234 0.16085951 -0.17741954 0.087255836 -0.16587852 -0.06914306 -0.11461563 0.15499505 -0.16937128 -0.034983084 0.039837793 -0.08153544 0.1765894 -0.03702589 0.13561803 -0.14678307 -0.15405284 -0.12062324 0.16528367 0.16987857 -0.16315728 0.14804284 -0.10313835 0.0011500334 -0.036428683 -0.09399184 -0.16895752 -0.030186847 -0.1477551 -0.1447969 0.1686199 0.07336427 -0.049733162 0.11552934 0.11287043 -0.17292318 -0.17186497 -0.17510866 -0.04289213 -0.076815456 0.17470586 -0.17289802 -0.16364837 0.14373057 -0.15637511 0.009369805 0.087339304 0.105382085 -0.116494626 0.169863 -0.116626516 0.015686693 -0.17015654 -0.17403372 0.1610438 0.16611049 0.12540899 -0.16716781 0.15209138 0.06267859 -0.13863863 -0.17458549 -0.1521485 -0.12158984 -0.10206649 0.15539974 -0.09368114 0.12029851 0.1611093 -0.18362977 -0.0984331 0.15186325 -0.1408923 0.053867638 0.115126 0.02426216 0.17910932 0.007727621 0.16148336 -0.010941727 0.11700103 -0.04555889 -0.16609089 -0.15307003 -0.0057502333 -0.17643505 0.10193492 -0.044646382 0.15214229 0.16661759 -0.08171347 0.13397019 0.07949001 -0.18062319 0.041158833 -0.041645247 -0.026438072 -0.16846499 -0.17654186 -0.17391875 0.15547092 0.13726519 0.15138632 -0.16882335 -0.14670059 0.13847028 -0.16728961 -0.06392069 -0.026376242 0.15268317 -0.17073822 -0.063983455 0.16096877 -0.08038899 -0.13067229 0.14937522 -0.06796891 0.14752842 -0.17086264 -0.17948225 -0.12561616 0.17086232 0.17151703 -0.04324456 -0.06560106 -0.02440373 -0.15014842 -0.05370071 0.14772446 0.025007628 -0.008239068 0.17095578 -0.11749011 0.08600788 -0.12706295 0.12415417 -0.17306174 -0.12452335 0.031191919 0.1451612 0.17402534 -0.14741729 0.14442593 -0.1660597 -0.16534989 -0.16385596 0.14900492 0.09810341 0.09156439 0.11893917 -0.06756635 -0.10946292 0.062677786 -0.012427138 0.013701889 0.17926507 -0.12707669 0.17272636 0.16203995 -0.14857545 0.105008245 -0.050785553 0.09030978
