1 256
fiRnovAqg16fl -0.14829633 0.14329006 0.15434246 0.1340663 0.12646964 -0.12286294 -0.06931889 0.15403017 -0.1483784 -0.12367095 -0.13785335 0.16476578 -0.14563276 0.15530354 -0.16272408 0.14122589 -0.1199786 0.013627489 -0.15025531 0.15528959 0.15738676 -0.16068353 -0.13724472 -0.091247626 -0.15485767 -0.15473652 -0.15878424 0.14648317 -0.15165173 0.08849657 -0.052458797 0.14474005 0.10926862 0.12924147 0.13111866 0.10114577 -0.100248724 0.06748457 0.120595805 -0.15454018 -0.14171994 -0.16025424 -0.0693455 -0.06230744 0.15502894 0.12719356 -0.121658556 -0.11579459 0.15276247 0.16017522 -0.14998928 -0.026379414 -0.14970279 -0.11410029 0.14436555 0.16368864 -0.15927917 -0.14378202 0.095999956 0.15439245 0.16138151 -0.1517059 0.04813712 -0.15720688 -0.15170124 -0.031306427 -0.15572926 -0.09211868 0.15923902 0.15375161 -0.15095015 0.1306703 -0.13689695 0.139829 -0.008515764 0.14944814 0.13541763 -0.15432587 0.0036599506 0.13894919 -0.15370604 0.005753953 0.1559064 -0.07705639 -0.062430292 0.15126793 0.1519591 -0.028032318 0.04220553 0.15597095 -0.15493414 -0.12313555 -0.14946035 0.12096534 0.13011909 0.152984 0.15629503 0.15629357 -0.059377864 -0.13620628 -0.16100691 -0.1455675 0.01629538 -0.14099436 -0.15410577 0.15632416 -0.033007734 0.1522235 -0.13105202 0.16277565 -0.14986533 0.1474172 0.046106625 0.05851465 0.13685028 -0.14896674 -0.12145105 0.15672576 -0.03574718 0.060238987 -0.15644962 0.13331062 -0.14728507 0.12783481 -0.15303737 0.13671406 0.15618613 -0.1283978 -0.15463358 0.11097589 -0.12306039 0.12683879 0.13135874 0.13496925 -0.15399238 -0.10604641 -0.07766237 -0.15662757 -0.10930384 0.15804894 0.16303962 0.0314827 -0.15398088 0.13620882 -0.14395365 -0.10799349 -0.12804973 0.15269126 0.15974912 0.02256778 -0.13960235 -0.023110524 -0.16077583 -0.07239949 -0.13125373 0.1451938 0.16056392 0.14737917 0.12376411 0.07819478 0.14409944 0.1482447 0.1390498 -0.1603023 0.017121445 0.028463144 -0.15441222 -0.15284191 -0.049527608 0.15351632 0.105499774 -0.00065789 0.15706564 0.064500764 0.14973396 -0.14553665 -0.1590802 0.15271948 -0.15923554 0.14941491 -0.05388979 -0.09118508 -0.14118245 0.006829423 -0.05421094 -0.14288631 0.16129367 -0.12364577 -0.15914576 -0.12763472 0.13544959 -0.12839371 -0.13714138 0.15506683 0.030096775 0.15633008 0.15543373 0.13912651 -0.15364455 -0.15513335 -0.100608744 -0.1605447 -0.14042175 0.15274638 0.13263774 -0.16398643 0.08337839 -0.15103447 0.15769981 -0.16226229 0.15960783 0.14520589 -0.039250202 0.07969175 0.09894538 -0.15688166 0.12815453 0.15398811 0.017608853 -0.081634596 -0.13957508 0.15130876 0.14028633 -0.012162324 0.16232187 0.15326317 0.15967733 -0.13248885 -0.056928664 -0.15383847 0.15479723 0.12635851 -0.15490055 -0.14594597 -0.14258486 0.16143997 0.14349546 -0.053281285 -0.1471579 0.1508312 -0.097741775 0.08171549 0.15853396 0.03813734 -0.14380272 0.04317581 0.103917286 -0.008132092 0.09946927 0.10263859 -0.15016474 0.14595884 -0.1375552 -0.1341742 -0.15732282 -0.030604977
